tree
version=v3
num_class=1
num_tree_per_iteration=1
label_index=0
max_feature_idx=129
objective=regression
feature_names=LotArea MasVnrArea BsmtFinSF1 BsmtFinSF2 BsmtUnfSF TotalBsmtSF 2ndFlrSF GrLivArea WoodDeckSF OpenPorchSF MSSubClass_mean MSSubClass_var MSZoning_mean MSZoning_var LotFrontage_mean LotFrontage_var Street_mean Street_var LotShape_mean LotShape_var LandContour_mean LandContour_var Utilities_mean Utilities_var LotConfig_mean LotConfig_var LandSlope_mean LandSlope_var Neighborhood_mean Neighborhood_var Condition1_mean Condition1_var Condition2_mean Condition2_var BldgType_mean BldgType_var HouseStyle_mean HouseStyle_var OverallQual_mean OverallQual_var OverallCond_mean OverallCond_var YearBuilt_mean YearBuilt_var YearRemodAdd_mean YearRemodAdd_var RoofStyle_mean RoofStyle_var RoofMatl_mean RoofMatl_var Exterior1st_mean Exterior1st_var Exterior2nd_mean Exterior2nd_var MasVnrType_mean MasVnrType_var ExterQual_mean ExterQual_var ExterCond_mean ExterCond_var Foundation_mean Foundation_var BsmtQual_mean BsmtQual_var BsmtCond_mean BsmtCond_var BsmtExposure_mean BsmtExposure_var BsmtFinType1_mean BsmtFinType1_var BsmtFinType2_mean BsmtFinType2_var Heating_mean Heating_var HeatingQC_mean HeatingQC_var CentralAir_mean CentralAir_var Electrical_mean Electrical_var LowQualFinSF_mean LowQualFinSF_var BsmtFullBath_mean BsmtFullBath_var BsmtHalfBath_mean BsmtHalfBath_var FullBath_mean FullBath_var HalfBath_mean HalfBath_var BedroomAbvGr_mean BedroomAbvGr_var KitchenAbvGr_mean KitchenAbvGr_var KitchenQual_mean KitchenQual_var Functional_mean Functional_var Fireplaces_mean Fireplaces_var GarageType_mean GarageType_var GarageFinish_mean GarageFinish_var GarageCars_mean GarageCars_var GarageQual_mean GarageQual_var GarageCond_mean GarageCond_var PavedDrive_mean PavedDrive_var EnclosedPorch_mean EnclosedPorch_var 3SsnPorch_mean 3SsnPorch_var ScreenPorch_mean ScreenPorch_var PoolArea_mean PoolArea_var MiscVal_mean MiscVal_var MoSold_mean MoSold_var YrSold_mean YrSold_var SaleType_mean SaleType_var SaleCondition_mean SaleCondition_var
feature_infos=[1300:215245] [0:1600] [0:5644] [0:1474] [0:2336] [105:6110] [0:2065] [520:5642] [0:857] [0:547] [103988.77499999999:247811.8232044199] [143662307.69230768:8274821790.0907888] [91678.166666666672:214840.51111111112] [820314952.96666658:6700182253.4014635] [58500:745000] [0:88200000000] none none [170445.36617405582:243417.57894736843] [5122821531.0318089:13183200000.000002] [141284.40625:239108] [1702651163.7973785:11925733636.363636] none none [182400.46944858419:258872.5294117647] [5594726438.8285694:11084063834.499107] [185992.28605200947:200596] [6356756315.1322794:12048846080] [103953.13636363637:327109.57142857142] [76642857.142857179:13202611779.95767] [130696.66666666667:238333.33333333334] [0:11736000000] none none [123456.25:190353.8509485095] [582955958.33333325:6912694437.0116816] [108842.85714285714:213341.54480286737] [511043376.74761915:8140910176.8891745] [94845.833333333328:409506.5] [422951902.52636069:24559578586.884617] [83637.5:230716] [323694107.14285707:53605857312] [82666.666666666672:394432] [0:29686441000] [117498.25:337874.66666666669] [0:25962948365.036232] [161357.14285714287:228070.6978021978] [1457583333.3333333:13018755540.620874] none none [60000:262000] [0:12449744101.418253] [134166.66666666666:319000] [0:45374396190.476189] [125178.5:266343.37755102041] [869515733.5:9218456583.0003185] [92398.600000000006:365451.45945945947] [660427409.79999995:7249397476.2552567] [119538.46153846153:243000] [1519269230.7692306:13448000000] [136776.7340425532:229498.03755868544] [2081364340.4547236:7315582050.0879974] [117256.84:323425.28571428574] [1109340798.8066664:11251141849.295238] [67000:209997.32432432432] [0:6430309696.6056299] [168487.27504244482:263766.25974025973] [3771677196.7269444:13012332080.036907] [140310.02469135803:245039.69731800767] [996510871.92438245:8236517404.2349539] [139846.95454545456:216736.36363636365] [1264051025.6410253:16375958545.454544] none none [87000:218682.68442622951] [0:7347810786.0644836] [114761.04444444444:190274.04081632654] [1328143297.1797979:6390852326.6185265] [67000:191735.07257072569] [0:6453463664.5747795] none none [169007.45719844359:231010.66666666666] [4107711084.5527453:10934735778.250002] [161647.95918367346:194201] [0:6618492131.8020897] [137007.27937336813:359825.05555555556] [1745522976.4165087:26810636497.820263] [161663.85714285713:213498.48787878788] [1046071867.8095236:8022440391.4238663] [162825.16289592761:259986.33333333334] [1647380000:19557191560.333332] [106000:188023.44352941177] [0:6510980811.3590002] [118185.72222222222:325830.61842105264] [856000569.3888886:10459583121.065786] [97333.333333333328:188891.71480582524] [696333333.33333337:6598366322.9525919] [147220.8939759036:267500] [1838597506.5587804:14321306338.597076] [108986.33333333333:269425.625] [1000560.333333337:12469465486.239365] [138058.6328125:248091.91363636364] [1460546227.3609045:9599122000.9742508] [128503.87603305785:307493.64122137404] [904606486.42440248:9886388633.0779762] [100166.66666666667:199758] [24500000:6434519770.8680172] [102900:189306.68883610453] [24500000:6436003673.7175589] [124077.57575757576:190190.40266021766] [935568496.7320261:6478036614.8534126] [62383:438780] [0:43689680000] none none [119900:415298] [0:48288040538.916664] none none [55993:266500] [0:6452778362.7633514] [170287.29914529916:201776.7111111111] [3323608380.7344027:11813325919.946232] [182596.70873786407:189894.0918367347] [5057957833.2290297:7779019184.2479305] [133093.10344827586:324000] [0:58464901250] [122812:270455.27659574465] [0:9264171045.6431026]
tree_sizes=709 718 793 795 715 791 799 790 715 549 798 553 706 710 633 632 636 470 638 626 547 547 631 803 469 549 634 468 635 629 546 551 629 633 713 547 633 473 717 552 547 712 467 554 628 469 793 552 545 464 466 627 798 468 799 550 545 548 710 628 806 622 713 716 542 784 466 710 709 800 468 545 793 466 630 631 557 465 466 549 708 545 711 548 551 626 631 712 550 471

Tree=0
num_leaves=7
num_cat=0
split_feature=38 38 14 7 7 2
split_gain=2.80023e+12 6.14201e+11 3.59501e+11 1.54549e+11 1.35767e+11 1.00227e+11
threshold=240491.32296174488 181703.99172988712 263749.41666666669 1304.0000000000002 2021.0000000000002 848.50000000000011
decision_type=2 2 2 2 2 2
left_child=1 3 5 -1 -3 -2
right_child=2 4 -4 -5 -6 -7
leaf_value=174248.89213226939 200153.3236081436 187929.87616154327 227843.71480560856 181331.28058108769 202033.25312488183 211792.89253718237
leaf_weight=287 67 186 37 216 32 53
leaf_count=287 67 186 37 216 32 53
internal_value=0 -26353.1 121023 -45567.7 17981.6 94451.7
internal_weight=0 721 157 503 218 120
internal_count=878 721 157 503 218 120
shrinkage=1


Tree=1
num_leaves=7
num_cat=0
split_feature=38 28 14 7 15 42
split_gain=1.79215e+12 4.66415e+11 2.48879e+11 1.41399e+11 1.22211e+11 4.78225e+10
threshold=240491.32296174488 154239.32196969699 293017.87500000006 1800.5000000000002 7887299451.5642462 137796.66666666669
decision_type=2 2 2 2 2 2
left_child=1 5 4 -3 -2 -1
right_child=2 3 -4 -5 -6 -7
leaf_value=-11244.533831028295 13459.287698146276 -746.77301336281312 39628.066257440478 9655.0775698617781 29186.071484375003 -6804.1577186734066
leaf_weight=185 112 267 21 65 24 204
leaf_count=185 112 267 21 65 24 204
internal_value=0 -21082.5 96818.3 6448.67 81173 -44579.5
internal_weight=0 721 157 332 136 389
internal_count=878 721 157 332 136 389
shrinkage=0.2


Tree=2
num_leaves=8
num_cat=0
split_feature=38 86 38 10 7 8 14
split_gain=1.14698e+12 3.33312e+11 2.0765e+11 1.10312e+11 7.57385e+10 4.50315e+10 4.23191e+10
threshold=240491.32296174488 214986.68842494718 316860.61040285573 167924.72222222225 1926.0000000000002 207.00000000000003 144300.00000000003
decision_type=2 2 2 2 2 2 2
left_child=1 6 4 -3 -2 -4 -1
right_child=2 3 5 -5 -6 -7 -8
leaf_value=-10437.734468871124 5854.0042962746547 -4127.1705379347368 30949.263645833336 3541.6341827909828 16670.08697482639 18873.817689732143 -5965.225338194623
leaf_weight=129 61 110 30 236 45 21 246
leaf_count=129 61 110 30 236 45 21 246
internal_value=0 -16866 77454.7 5517.87 52228.7 129885 -37518.8
internal_weight=0 721 157 346 106 51 375
internal_count=878 721 157 346 106 51 375
shrinkage=0.2


Tree=3
num_leaves=8
num_cat=0
split_feature=38 104 7 5 7 42 2
split_gain=7.34463e+11 3.21306e+11 1.16977e+11 8.3677e+10 6.58779e+10 3.90841e+10 2.95239e+10
threshold=181703.99172988712 245134.88634773882 2575.0000000000005 1415.5000000000002 1377.0000000000002 131996.87500000003 293.00000000000006
decision_type=2 2 2 2 2 2 2
left_child=4 3 -3 -2 5 -1 -6
right_child=1 2 -4 -5 6 -7 -8
leaf_value=-10408.830931454613 349.18086918422159 12280.391525926778 28672.06354166667 8485.8862541852686 -4708.8456670993719 -5396.2964213609703 446.41230441221262
leaf_weight=84 182 102 21 70 82 240 97
leaf_count=84 182 102 21 70 82 240 97
internal_value=0 33497 75394.8 13046.9 -24972.9 -33479.2 -9576.07
internal_weight=0 375 123 252 503 324 179
internal_count=878 375 123 252 503 324 179
shrinkage=0.2


Tree=4
num_leaves=7
num_cat=0
split_feature=29 94 5 7 7 28
split_gain=5.1552e+11 1.78695e+11 1.52969e+11 7.75052e+10 5.19784e+10 3.261e+10
threshold=4322028772.6056957 176593.88923172368 1719.5000000000002 1474.0000000000002 2216.5000000000005 137157.27272727274
decision_type=2 2 2 2 2 2
left_child=1 5 4 -3 -2 -1
right_child=2 3 -4 -5 -6 -7
leaf_value=-7040.7436152760583 4075.3892227172855 -2656.9733747797427 22231.827186414932 3871.1148138797648 13382.951654730903 -3431.1553730352384
leaf_weight=164 72 115 36 198 36 257
leaf_count=164 72 115 36 198 36 257
internal_value=0 -10732.7 54706.9 7363.08 35889.6 -24186.3
internal_weight=0 734 144 313 108 421
internal_count=878 734 144 313 108 421
shrinkage=0.2


Tree=5
num_leaves=8
num_cat=0
split_feature=5 7 7 14 43 2 14
split_gain=3.52041e+11 1.3569e+11 1.23848e+11 6.11048e+10 4.80746e+10 3.67746e+10 3.62767e+10
threshold=1409.0000000000002 1898.0000000000002 1751.0000000000002 265073.16666666669 2684445436.507937 938.50000000000011 148120.00000000003
decision_type=2 2 2 2 2 2 2
left_child=2 5 6 -3 -4 -2 -1
right_child=1 3 4 -5 -6 -7 -8
leaf_value=-5929.3759745160278 1390.6780873938453 10216.951497395834 -946.40732709099268 23479.979101562501 6245.9646482886346 8200.5597812868509 -2398.3513393143653
leaf_weight=170 79 33 68 24 82 53 369
leaf_count=170 79 33 68 24 82 53 369
internal_value=0 38232.1 -10487.5 79006.9 14927.1 20624.7 -17560.2
internal_weight=0 189 689 57 150 132 539
internal_count=878 189 689 57 150 132 539
shrinkage=0.2


Tree=6
num_leaves=8
num_cat=0
split_feature=29 62 43 44 0 7 2
split_gain=2.56703e+11 1.11995e+11 6.72677e+10 5.87496e+10 3.67731e+10 2.61906e+10 1.39844e+10
threshold=3155409440.8309398 264578.66254218231 7125569257.2613058 147703.68750000003 7213.0000000000009 1483.0000000000002 311.50000000000006
decision_type=2 2 2 2 2 2 2
left_child=3 4 -3 6 -2 -5 -1
right_child=1 2 -4 5 -6 -7 -8
leaf_value=-6121.4595360558314 -2091.8820952690971 8397.6799277343744 22121.725595703127 -2157.27804995522 4582.661461467128 1154.9845413571313 -3143.0769945118527
leaf_weight=111 45 50 20 193 124 189 146
leaf_count=111 45 50 20 193 124 189 146
internal_value=0 27958.9 61594.2 -10457.2 14027.1 -2592.44 -22147.3
internal_weight=0 239 70 639 169 382 257
internal_count=878 239 70 639 169 382 257
shrinkage=0.2


Tree=7
num_leaves=8
num_cat=0
split_feature=5 7 15 2 10 7 2
split_gain=1.77956e+11 1.07123e+11 5.57546e+10 4.47858e+10 3.45129e+10 1.52199e+10 7.37125e+09
threshold=1164.5000000000002 2087.0000000000005 8271399391.3333349 1207.0000000000002 230755.91160220999 1049.0000000000002 687.50000000000011
decision_type=2 2 2 2 2 2 2
left_child=4 3 -3 -2 5 -1 -6
right_child=1 2 -4 -5 6 -7 -8
leaf_value=-4706.5437097603935 634.9830579570696 7139.2091139475515 19707.878544921878 7737.2916674236913 58.316421869451347 -2170.1185585335511 4147.4395438058036
leaf_weight=140 204 48 20 43 110 292 21
leaf_count=140 204 48 20 43 110 292 21
internal_value=0 19033 54179.4 9357.09 -10649 -14960.5 3569.12
internal_weight=0 315 68 247 563 432 131
internal_count=878 315 68 247 563 432 131
shrinkage=0.2


Tree=8
num_leaves=7
num_cat=0
split_feature=29 2 102 7 14 10
split_gain=1.21673e+11 6.36029e+10 2.89866e+10 2.71842e+10 1.34709e+10 1.07442e+10
threshold=3155409440.8309398 1337.0000000000002 171342.79633325731 2065.5000000000005 199779.50000000003 142083.58822791168
decision_type=2 2 2 2 2 2
left_child=2 3 5 -2 -4 -1
right_child=1 -3 4 -5 -6 -7
leaf_value=-4644.3987464096963 1361.390466068968 12992.047185149017 -840.26719817398862 6559.3247097439234 2150.4615644909086 -2050.4921232327411
leaf_weight=85 158 27 213 54 84 257
leaf_count=85 158 27 213 54 84 257
internal_value=0 19248.7 -7199.44 13427 27.9774 -13475.9
internal_weight=0 239 639 212 297 342
internal_count=878 239 639 212 297 342
shrinkage=0.2


Tree=9
num_leaves=5
num_cat=0
split_feature=7 44 2 128
split_gain=9.5728e+10 6.43591e+10 3.99116e+10 9.6953e+09
threshold=2657.0000000000005 176371.48275862072 771.50000000000011 166100.68521126764
decision_type=2 2 2 2
left_child=1 3 -3 -1
right_child=-2 2 -4 -5
leaf_value=-4823.316625507061 13678.258261718751 80.060866633823935 4139.0281241345765 -1880.1359718085816
leaf_weight=52 20 350 134 322
leaf_count=52 20 350 134 322
internal_value=0 -1594.2 6019.12 -11446.7
internal_weight=0 858 484 374
internal_count=878 858 484 374
shrinkage=0.2


Tree=10
num_leaves=8
num_cat=0
split_feature=5 7 15 12 7 44 98
split_gain=6.55539e+10 4.12328e+10 2.33492e+10 1.49393e+10 1.54435e+10 1.46538e+10 5.78632e+09
threshold=1089.0000000000002 1844.5000000000002 10275824923.723486 163961.89779411766 1720.5000000000002 238651.04166666672 182654.31919638856
decision_type=2 2 2 2 2 2 2
left_child=3 5 -3 6 -5 -2 -1
right_child=1 2 -4 4 -6 -7 -8
leaf_value=-4149.9732495117196 172.93220677039437 3659.6708030007103 10585.850980468751 -1550.7696201257775 1519.6445086849437 5565.1050266612665 -1172.4583706325955
leaf_weight=95 241 88 25 286 85 22 36
leaf_count=95 241 88 25 286 85 22 36
internal_value=0 9984.13 25960.1 -7478.15 -4236.53 3119.94 -16658.6
internal_weight=0 376 113 502 371 263 131
internal_count=878 376 113 502 371 263 131
shrinkage=0.2


Tree=11
num_leaves=5
num_cat=0
split_feature=7 68 7 11
split_gain=4.72398e+10 3.68983e+10 2.04855e+10 1.53155e+10
threshold=2657.0000000000005 210194.70977011498 1649.0000000000002 1249701449.3880765
decision_type=2 2 2 2
left_child=1 3 -3 -1
right_child=-2 2 -4 -5
leaf_value=-3076.8365874991932 9608.7165765380869 77.533679568859952 3708.039698689779 -563.20434286516218
leaf_weight=121 20 129 120 488
leaf_count=121 20 129 120 488
internal_value=0 -1119.9 9135.88 -5313.14
internal_weight=0 858 249 609
internal_count=878 858 249 609
shrinkage=0.2


Tree=12
num_leaves=7
num_cat=0
split_feature=2 126 14 15 2 8
split_gain=3.49218e+10 2.3507e+10 1.9049e+10 2.05597e+10 1.27887e+10 7.79952e+09
threshold=1096.0000000000002 225855.11906733914 265073.16666666669 2536631981.2865334 224.00000000000003 48.500000000000007
decision_type=2 2 2 2 2 2
left_child=1 4 3 -2 -1 -3
right_child=2 5 -4 -5 -6 -7
leaf_value=-1765.4398904901316 -2602.2114921238112 856.99778627337844 9109.8081914992563 4937.2172137920679 -53.7079921691506 5086.1684287406306
leaf_weight=293 23 33 21 39 432 37
leaf_count=293 23 33 21 39 432 37
internal_value=0 -2037.78 19518.5 10701.7 -3727.42 15462.1
internal_weight=0 795 83 62 725 70
internal_count=878 795 83 62 725 70
shrinkage=0.2


Tree=13
num_leaves=7
num_cat=0
split_feature=7 38 43 82 2 9
split_gain=2.83548e+10 1.80887e+10 1.38247e+10 1.08122e+10 6.88276e+09 3.14045e+09
threshold=2308.0000000000005 145727.3197115385 5635871561.8790903 189734.14268372886 565.50000000000011 68.500000000000014
decision_type=2 2 2 2 2 2
left_child=1 4 5 -3 -1 -2
right_child=2 3 -4 -5 -6 -7
leaf_value=-2283.6386435911827 132.47047702955163 -393.23017822366342 7632.3697851562501 1463.7406468364679 -220.29731234520983 3474.859940407493
leaf_weight=194 23 303 25 214 97 22
leaf_count=194 23 303 25 214 97 22
internal_value=0 -1672.67 19307.4 1877.1 -7979.29 8832.64
internal_weight=0 808 70 517 291 45
internal_count=878 808 70 517 291 45
shrinkage=0.2


Tree=14
num_leaves=6
num_cat=0
split_feature=29 0 126 40 20
split_gain=2.04006e+10 2.85667e+10 1.42319e+10 9.18645e+09 7.67985e+09
threshold=3155409440.8309398 15405.000000000002 225855.11906733914 138011.95065789475 163373.57016619854
decision_type=2 2 2 2 2
left_child=3 2 -2 -1 -5
right_child=1 -3 -4 4 -6
leaf_value=-3788.42727876551 -187.62399406186998 7834.7720365084142 3484.957436627355 -3994.3036037279217 -268.16902874376359
leaf_weight=34 155 26 58 23 582
leaf_count=34 155 26 58 23 582
internal_value=0 7881.8 4062.11 -2947.96 -2049.12
internal_weight=0 239 213 639 605
internal_count=878 239 213 639 605
shrinkage=0.2


Tree=15
num_leaves=6
num_cat=0
split_feature=6 123 104 2 7
split_gain=1.74423e+10 1.29408e+10 1.15953e+10 9.21423e+09 4.20885e+09
threshold=1068.5000000000002 8016013940.1042585 152468.60468319562 224.00000000000003 993.00000000000011
decision_type=2 2 2 2 2
left_child=2 -2 4 -4 -1
right_child=1 -3 3 -5 -6
leaf_value=-2644.3457340494792 1081.5176818847656 7328.751210239956 -730.2153932909946 898.16147867547068 -839.10297371737931
leaf_weight=75 36 21 231 349 166
leaf_count=75 36 21 231 349 166
internal_value=0 16915.7 -1174.41 1248.09 -7004.5
internal_weight=0 57 821 580 241
internal_count=878 57 821 580 241
shrinkage=0.2


Tree=16
num_leaves=6
num_cat=0
split_feature=99 5 44 14 40
split_gain=1.59154e+10 1.42827e+10 1.28142e+10 8.55932e+09 5.97062e+09
threshold=12164819835.965208 1476.5000000000002 196583.33333333334 187535.71428571432 205305.55466950205
decision_type=2 2 2 2 2
left_child=2 -2 4 -4 -1
right_child=1 -3 3 -5 -6
leaf_value=-346.25921886362926 881.66699634128145 7547.6326049804693 -406.20292772223189 1427.6575397316469 -1881.8333207869798
leaf_weight=235 36 20 191 218 178
leaf_count=235 36 20 191 218 178
internal_value=0 16311.8 -1111.27 2856.29 -5040.4
internal_weight=0 56 822 409 413
internal_count=878 56 822 409 413
shrinkage=0.2


Tree=17
num_leaves=4
num_cat=0
split_feature=87 112 116
split_gain=1.21192e+10 9.10377e+09 7.18246e+09
threshold=9980669296.1819115 116750.00000000001 239671.50000000003
decision_type=2 2 2
left_child=1 -1 -3
right_child=-2 2 -4
leaf_value=-4231.9191196986603 4634.9443914240064 -109.90195203776442 3636.2722040085569
leaf_weight=21 22 814 21
leaf_count=21 22 814 21
internal_value=0 -595.612 -78.434
internal_weight=0 856 835
internal_count=878 856 835
shrinkage=0.2


Tree=18
num_leaves=6
num_cat=0
split_feature=98 45 40 40 15
split_gain=1.00119e+10 7.89923e+09 5.38052e+09 5.32606e+09 3.81409e+09
threshold=182654.31919638856 12987168532.462154 205305.55466950205 138011.95065789475 6002530887.364584
decision_type=2 2 2 2 2
left_child=3 2 -2 -1 -5
right_child=1 -3 -4 4 -6
leaf_value=-3605.3148590087894 1365.8029827725356 3895.5007481166294 -98.781818142897805 -264.68117621981264 -1974.7754814886277
leaf_weight=24 157 28 278 329 62
leaf_count=24 157 28 278 329 62
internal_value=0 3197.02 2149.08 -3566.79 -2679.24
internal_weight=0 463 435 415 391
internal_count=878 463 435 415 391
shrinkage=0.2


Tree=19
num_leaves=6
num_cat=0
split_feature=5 1 0 64 0
split_gain=8.4131e+09 1.57548e+10 1.36818e+10 6.68676e+09 5.48531e+09
threshold=1665.0000000000002 425.00000000000006 13174.000000000002 151140.6613691932 7166.5000000000009
decision_type=2 2 2 2 2
left_child=3 2 -2 -1 -5
right_child=1 -3 -4 4 -6
leaf_value=-3552.7868164062502 1327.1787995256698 -2674.9133603050595 7784.4981561569939 -1078.3749426879883 193.49447338996242
leaf_weight=23 35 21 21 175 603
leaf_count=23 35 21 21 175 603
internal_value=0 9983.93 18743.4 -959.754 -462.972
internal_weight=0 77 56 801 778
internal_count=878 77 56 801 778
shrinkage=0.2


Tree=20
num_leaves=5
num_cat=0
split_feature=6 128 7 15
split_gain=8.04805e+09 7.42467e+09 5.38244e+09 3.36187e+09
threshold=1205.5000000000002 166100.68521126764 982.50000000000011 6636622916.697917
decision_type=2 2 2 2
left_child=1 3 -3 -1
right_child=-2 2 -4 -5
leaf_value=-1177.890298282399 3276.2952430462014 -1325.5974096868458 266.94043993360856 -4184.6050723121289
leaf_weight=51 29 97 680 21
leaf_count=51 29 97 680 21
internal_value=0 -559.556 340.647 -10274.2
internal_weight=0 849 777 72
internal_count=878 849 777 72
shrinkage=0.2


Tree=21
num_leaves=5
num_cat=0
split_feature=99 0 15 7
split_gain=7.14738e+09 8.79313e+09 5.55501e+09 7.76975e+09
threshold=12164819835.965208 13625.500000000002 254160791.16666669 2575.0000000000005
decision_type=2 2 2 2
left_child=2 -2 -1 -4
right_child=1 -3 3 -5
leaf_value=-2578.3274715847438 318.26519986258614 5548.5990673828128 -141.85544585433661 3757.6035836356032
leaf_weight=36 36 20 765 21
leaf_count=36 36 20 765 21
internal_value=0 10931.2 -744.705 -188.357
internal_weight=0 56 822 786
internal_count=878 56 822 786
shrinkage=0.2


Tree=22
num_leaves=6
num_cat=0
split_feature=5 87 3 76 90
split_gain=5.59821e+09 5.48255e+09 3.98488e+09 2.99093e+09 1.34659e+09
threshold=786.00000000000011 9980669296.1819115 470.00000000000006 152517.54263038552 204596.660697602
decision_type=2 2 2 2 2
left_child=3 2 -2 -1 -5
right_child=1 -3 -4 4 -6
leaf_value=-3176.6764781605116 43.322537481784821 3439.854616292318 2205.8915317111546 -461.55842388505528 -2180.6440420604886
leaf_weight=22 640 21 36 138 21
leaf_count=22 640 21 36 138 21
internal_value=0 1286.77 792.445 -4955.12 -3443.04
internal_weight=0 697 676 181 159
internal_count=878 697 676 181 159
shrinkage=0.2


Tree=23
num_leaves=8
num_cat=0
split_feature=2 44 29 11 28 90 74
split_gain=5.15369e+09 6.82084e+09 7.02886e+09 3.50598e+09 3.39353e+09 1.89108e+09 8.23214e+08
threshold=24.500000000000004 202341.80366726298 3155409440.8309398 1998160507.1272771 207445.74163969798 168000.00000000003 189528.06849048703
decision_type=2 2 2 2 2 2 2
left_child=3 4 -3 6 -2 -5 -1
right_child=1 2 -4 5 -6 -7 -8
leaf_value=-2733.0811974727749 -11.016462374184787 138.03515059773517 2333.1954236279739 -1575.1033698477397 -2113.53747845818 -80.155671778413449 -1211.5761303710938
leaf_weight=33 317 123 111 41 34 194 25
leaf_count=33 317 123 111 41 34 194 25
internal_value=0 1714.62 5896.65 -3423.39 -1073.4 -1704.88 -10386.3
internal_weight=0 585 234 293 351 235 58
internal_count=878 585 234 293 351 235 58
shrinkage=0.2


Tree=24
num_leaves=4
num_cat=0
split_feature=43 116 7
split_gain=4.44134e+09 4.44298e+09 3.93231e+09
threshold=17154739679.487181 239671.50000000003 2575.0000000000005
decision_type=2 2 2
left_child=1 2 -1
right_child=-2 -3 -4
leaf_value=-69.779741662571254 2742.5773883322013 2799.3667468843009 -2616.5669121093752
leaf_weight=809 23 21 25
leaf_count=809 23 21 25
internal_value=0 -368.885 -730.611
internal_weight=0 855 834
internal_count=878 855 834
shrinkage=0.2


Tree=25
num_leaves=5
num_cat=0
split_feature=40 99 7 40
split_gain=4.11689e+09 4.83412e+09 5.80076e+09 4.31909e+09
threshold=138011.95065789475 12164819835.965208 1662.5000000000002 178935.62834224603
decision_type=2 2 2 2
left_child=-1 3 -3 -2
right_child=1 2 -4 -5
leaf_value=-2064.7352354307436 580.07346633121892 -449.88356270168146 3771.799885457357 -390.82887780369526
leaf_weight=37 290 23 30 498
leaf_count=37 290 23 30 498
internal_value=0 454.193 9698.74 -167.586
internal_weight=0 841 53 788
internal_count=878 841 53 788
shrinkage=0.2


Tree=26
num_leaves=6
num_cat=0
split_feature=66 43 14 94 0
split_gain=3.91733e+09 7.65189e+09 4.31546e+09 5.44208e+09 3.33572e+09
threshold=200830.60066417602 7762868936.7484856 263749.41666666669 269446.55988803314 14594.000000000002
decision_type=2 2 2 2 2
left_child=2 4 3 -1 -2
right_child=1 -3 -4 -5 -6
leaf_value=-264.20514849400359 605.84005759179934 4097.5290934244795 -2589.6584594726564 2541.4243483970909 -2005.4396839488636
leaf_weight=596 177 24 30 29 22
leaf_count=596 177 24 30 29 22
internal_value=0 3620.06 -1232.48 -670.12 1585.78
internal_weight=0 223 655 625 199
internal_count=878 223 655 625 199
shrinkage=0.2


Tree=27
num_leaves=4
num_cat=0
split_feature=20 7 128
split_gain=3.45958e+09 9.40185e+09 3.63786e+09
threshold=163373.57016619854 2638.5000000000005 166100.68521126764
decision_type=2 2 2
left_child=-1 2 -2
right_child=1 -3 -4
leaf_value=-2041.2888384819032 -1416.7638371122057 4361.9730761718747 100.18294210900089
leaf_weight=32 69 20 757
leaf_count=32 69 20 757
internal_value=0 386.059 -132.677
internal_weight=0 846 826
internal_count=878 846 826
shrinkage=0.2


Tree=28
num_leaves=6
num_cat=0
split_feature=4 5 5 66 104
split_gain=3.22817e+09 7.96341e+09 6.22725e+09 4.49666e+09 2.67512e+09
threshold=413.50000000000006 1651.0000000000002 1931.0000000000002 241907.35932218467 152468.60468319562
decision_type=2 2 2 2 2
left_child=1 4 3 -2 -1
right_child=2 -3 -4 -5 -6
leaf_value=-579.32628466692847 -309.93768170460936 4338.4201074218754 -3779.9973876953127 2614.7177817604761 619.84340592353237
leaf_weight=110 476 20 20 22 230
leaf_count=110 476 20 20 22 230
internal_value=0 2300.09 -1598.52 -903.68 1159.38
internal_weight=0 360 518 498 340
internal_count=878 360 518 498 340
shrinkage=0.2


Tree=29
num_leaves=6
num_cat=0
split_feature=0 64 20 38 123
split_gain=3.04458e+09 2.78087e+09 2.67561e+09 1.58147e+09 1.06255e+09
threshold=4775.0000000000009 151140.6613691932 163373.57016619854 181703.99172988712 5972563693.7385359
decision_type=2 2 2 2 2
left_child=3 -2 -3 4 -1
right_child=1 2 -4 -5 -6
leaf_value=456.58703929759844 -2095.2401389382103 -1666.4691284179689 260.16432140932073 -2096.9758358604031 -1466.7586840820313
leaf_weight=27 22 30 741 38 20
leaf_count=27 22 30 741 38 20
internal_value=0 609.662 925.99 -5687.79 -1809.29
internal_weight=0 793 771 85 47
internal_count=878 793 771 85 47
shrinkage=0.2


Tree=30
num_leaves=5
num_cat=0
split_feature=24 1 42 5
split_gain=2.66535e+09 4.86396e+09 9.02578e+09 7.5781e+09
threshold=233673.76470588238 425.00000000000006 259477.11742424246 1844.5000000000002
decision_type=2 2 2 2
left_child=1 3 -3 -1
right_child=-2 2 -4 -5
leaf_value=-49.253458849092326 1736.1680570714614 76.775324473661541 -5277.6747418212899 3715.4578894875267
leaf_weight=768 34 34 20 22
leaf_count=768 34 34 20 22
internal_value=0 -349.702 -9531.77 277.933
internal_weight=0 844 54 790
internal_count=878 844 54 790
shrinkage=0.2


Tree=31
num_leaves=5
num_cat=0
split_feature=6 38 38 1
split_gain=2.65228e+09 2.54998e+09 3.84727e+09 3.13145e+09
threshold=1288.5000000000002 240491.32296174488 145727.3197115385 425.00000000000006
decision_type=2 2 2 2
left_child=1 2 -1 -3
right_child=-2 3 -4 -5
leaf_value=-455.87625264018573 2276.7796464538574 -319.8926838726079 486.06090736118614 -2570.1074478149417
leaf_weight=294 20 109 423 32
leaf_count=294 20 109 423 32
internal_value=0 -265.359 499.136 -4152.9
internal_weight=0 858 717 141
internal_count=878 858 717 141
shrinkage=0.2


Tree=32
num_leaves=6
num_cat=0
split_feature=122 6 6 128 0
split_gain=2.28897e+09 3.42599e+09 2.76571e+09 2.69563e+09 9.63413e+08
threshold=195343.21546732841 1205.5000000000002 547.00000000000011 166100.68521126764 9661.0000000000018
decision_type=2 2 2 2 2
left_child=1 3 4 -1 -2
right_child=2 -3 -4 -5 -6
leaf_value=-1190.4741901744496 749.85777850680881 2458.2002446492515 -2419.4913623925413 146.26697256158698 -991.68336766560878
leaf_weight=66 27 24 33 704 24
leaf_count=66 27 24 33 704 24
internal_value=0 525.173 -4964.13 158.446 -348.455
internal_weight=0 794 84 770 51
internal_count=878 794 84 770 51
shrinkage=0.2


Tree=33
num_leaves=6
num_cat=0
split_feature=4 42 96 2 40
split_gain=2.06544e+09 4.69125e+09 2.31905e+09 2.50177e+09 2.12151e+09
threshold=543.50000000000011 260439.28728070177 165937.030075188 687.50000000000011 178935.62834224603
decision_type=2 2 2 2 2
left_child=1 4 -2 -4 -1
right_child=2 -3 3 -5 -6
leaf_value=560.20967116172494 -2226.3634409586589 2487.6163531833226 -45.515787165393569 -1793.06097462972 -342.01730743298691
leaf_weight=208 24 36 365 36 209
leaf_count=208 24 36 365 36 209
internal_value=0 1485.61 -1583.48 -1012.01 540.072
internal_weight=0 453 425 401 417
internal_count=878 453 425 401 417
shrinkage=0.2


Tree=34
num_leaves=7
num_cat=0
split_feature=7 40 45 38 43 53
split_gain=2.04387e+09 2.38903e+09 3.93636e+09 3.04407e+09 8.47105e+08 5.93316e+08
threshold=935.50000000000011 178935.62834224603 12987168532.462154 181703.99172988712 1202867440.4761908 3673048129.7673554
decision_type=2 2 2 2 2 2
left_child=4 3 -3 -2 -1 -6
right_child=1 2 -4 -5 5 -7
leaf_value=-236.95166899852268 275.27923520674193 -304.59022174745735 2136.5365844726562 2046.1630635137144 -2288.4920003255206 -859.1843240591196
leaf_weight=39 249 469 28 46 21 26
leaf_count=39 249 469 28 46 21 26
internal_value=0 502.767 -835.31 2757.09 -4630.13 -7489.06
internal_weight=0 792 497 295 86 47
internal_count=878 792 497 295 86 47
shrinkage=0.2


Tree=35
num_leaves=5
num_cat=0
split_feature=3 0 44 4
split_gain=1.84416e+09 1.75659e+09 2.0999e+09 1.00738e+09
threshold=493.50000000000006 4775.0000000000009 196583.33333333334 238.50000000000003
decision_type=2 2 2 2
left_child=1 3 -3 -1
right_child=-2 2 -4 -5
leaf_value=-1964.3396864670974 1422.5299255371094 -287.46429710192558 377.66060566025817 -462.0887718869929
leaf_weight=26 35 390 370 57
leaf_count=26 35 390 370 57
internal_value=0 -295.306 181.733 -4663.37
internal_weight=0 843 760 83
internal_count=878 843 760 83
shrinkage=0.2


Tree=36
num_leaves=6
num_cat=0
split_feature=4 0 15 66 122
split_gain=1.68267e+09 5.65643e+09 4.62316e+09 3.47099e+09 1.79933e+09
threshold=413.50000000000006 13875.500000000002 310546457.83333337 241907.35932218467 192294.04602424495
decision_type=2 2 2 2 2
left_child=1 4 -2 -4 -1
right_child=2 -3 3 -5 -6
leaf_value=274.77755739873504 -3137.5385044642862 3173.5479856050933 -234.67937592851354 2097.1880584716796 -1204.2607331147065
leaf_weight=297 21 26 470 27 37
leaf_count=297 21 26 470 27 37
internal_value=0 1660.6 -1154.09 -539.992 554.66
internal_weight=0 360 518 497 334
internal_count=878 360 518 497 334
shrinkage=0.2


Tree=37
num_leaves=4
num_cat=0
split_feature=15 15 126
split_gain=1.58502e+09 2.68306e+09 2.83407e+09
threshold=1.0000000180025095e-35 254160791.16666669 225855.11906733914
decision_type=2 2 2
left_child=-1 -2 -3
right_child=1 2 -4
leaf_value=1716.6485584077382 -2222.2179970481179 -111.08960108121875 1088.8989261453803
leaf_weight=21 22 747 88
leaf_count=21 22 747 88
internal_value=0 -210.325 76.8813
internal_weight=0 857 835
internal_count=878 857 835
shrinkage=0.2


Tree=38
num_leaves=7
num_cat=0
split_feature=38 29 5 5 96 76
split_gain=1.66872e+09 4.93287e+09 5.88465e+09 1.92124e+09 2.7432e+09 1.86237e+09
threshold=240491.32296174488 2543893769.3100462 1852.0000000000002 895.00000000000011 165937.030075188 152517.54263038552
decision_type=2 2 2 2 2 2
left_child=3 -2 -3 5 -5 -1
right_child=1 2 -4 4 -6 -7
leaf_value=-1782.2314512976286 -3107.2669543633097 -710.02874213324651 2813.2769913383154 -1439.7783664957683 544.53945499342319 -95.610106938680019
leaf_weight=29 26 108 23 30 392 270
leaf_count=29 26 108 23 30 392 270
internal_value=0 -2954.35 -457.165 643.32 2017.37 -1295.98
internal_weight=0 157 131 721 422 299
internal_count=878 157 131 721 422 299
shrinkage=0.2


Tree=39
num_leaves=5
num_cat=0
split_feature=87 38 14 104
split_gain=1.40904e+09 2.56499e+09 3.42e+09 2.05668e+09
threshold=9980669296.1819115 240491.32296174488 236376.83333333334 152468.60468319562
decision_type=2 2 2 2
left_child=1 3 -3 -1
right_child=-2 2 -4 -5
leaf_value=-360.1213300317155 1580.4112448952417 -163.91866625976564 -2279.8316233548253 358.22644511585281
leaf_weight=241 22 100 44 471
leaf_count=241 22 100 44 471
internal_value=0 -203.09 -4052.24 575.389
internal_weight=0 856 144 712
internal_count=878 856 144 712
shrinkage=0.2


Tree=40
num_leaves=5
num_cat=0
split_feature=92 31 5 100
split_gain=1.47914e+09 1.44547e+09 2.10469e+09 1.56324e+09
threshold=163207.94398692812 3472459576.1973186 1665.0000000000002 184784.83546617918
decision_type=2 2 2 2
left_child=-1 3 -3 -2
right_child=1 2 -4 -5
leaf_value=-1430.2672999790739 -75.454347270243872 15.332121506749585 1142.6463898541176 -2147.98693912824
leaf_weight=28 37 716 73 24
leaf_count=28 37 716 73 24
internal_value=0 235.573 598.168 -4454.39
internal_weight=0 850 789 61
internal_count=878 850 789 61
shrinkage=0.2


Tree=41
num_leaves=7
num_cat=0
split_feature=40 38 44 99 5 28
split_gain=1.29369e+09 2.598e+09 2.95262e+09 2.39305e+09 4.75938e+09 1.59227e+09
threshold=178935.62834224603 145727.3197115385 195378.96969696973 12164819835.965208 1906.0000000000002 171149.32954545456
decision_type=2 2 2 2 2 2
left_child=1 5 -3 4 -2 -1
right_child=3 2 -4 -5 -6 -7
leaf_value=30.26438165995889 -170.0210791367405 328.64629423124302 2206.0172362009685 1600.4721923828126 -3246.4781273251488 -1652.3017825493448
leaf_weight=167 477 111 48 28 21 26
leaf_count=167 477 111 48 28 21 26
internal_value=0 1483.85 4477 -992.993 -1498.76 -982.013
internal_weight=0 352 159 526 498 193
internal_count=878 352 159 526 498 193
shrinkage=0.2


Tree=42
num_leaves=4
num_cat=0
split_feature=106 20 2
split_gain=1.37836e+09 1.18036e+09 3.91527e+09
threshold=123537.44285714287 163373.57016619854 1356.0000000000002
decision_type=2 2 2
left_child=-1 -2 -3
right_child=1 2 -4
leaf_value=-1178.1800522653682 -1200.4453061860183 10.524329287516766 2302.4122172694056
leaf_weight=38 29 780 31
leaf_count=38 29 780 31
internal_value=0 266.493 490.652
internal_weight=0 840 811
internal_count=878 840 811
shrinkage=0.2


Tree=43
num_leaves=5
num_cat=0
split_feature=40 40 7 45
split_gain=1.17657e+09 1.69754e+09 2.42662e+09 1.90573e+09
threshold=138011.95065789475 178935.62834224603 1259.5000000000002 12987168532.462154
decision_type=2 2 2 2
left_child=-1 2 -2 -3
right_child=1 3 -4 -5
leaf_value=-1103.7947375323322 -141.12897310682163 -263.28541645073074 969.08881935409363 1404.6369767813849
leaf_weight=37 157 497 158 29
leaf_count=37 157 497 158 29
internal_value=0 242.809 2078.71 -856.639
internal_weight=0 841 315 526
internal_count=878 841 315 526
shrinkage=0.2


Tree=44
num_leaves=6
num_cat=0
split_feature=122 124 7 6 43
split_gain=1.14619e+09 2.67493e+09 2.4464e+09 2.00649e+09 2.26137e+09
threshold=195343.21546732841 185524.22232066156 1645.0000000000002 1205.5000000000002 9386666666.6666698
decision_type=2 2 2 2 2
left_child=3 -2 -3 4 -1
right_child=1 2 -4 -5 -6
leaf_value=96.287670329750568 1252.2618210565479 -127.49108629226686 -2620.4095065209176 1875.1778345743817 -1486.1035230134664
leaf_weight=732 21 32 31 24 38
leaf_count=732 21 32 31 24 38
internal_value=0 -3512.79 -6770.83 371.63 90.9782
internal_weight=0 84 63 794 770
internal_count=878 84 63 794 770
shrinkage=0.2


Tree=45
num_leaves=4
num_cat=0
split_feature=64 15 5
split_gain=1.05254e+09 1.12325e+09 1.25562e+09
threshold=151140.6613691932 1.0000000180025095e-35 1793.5000000000002
decision_type=2 2 2
left_child=-1 -2 -3
right_child=1 2 -4
leaf_value=-1335.1246579377548 1517.1168383789063 57.583948516845709 -1052.1152020476586
leaf_weight=23 20 792 43
leaf_count=23 20 792 43
internal_value=0 179.578 2.18882
internal_weight=0 855 835
internal_count=878 855 835
shrinkage=0.2


Tree=46
num_leaves=8
num_cat=0
split_feature=8 28 1 2 38 42 15
split_gain=1.03888e+09 2.93151e+09 5.72091e+09 3.71866e+09 2.12883e+09 4.01141e+09 1.46056e+09
threshold=158.50000000000003 187132.28349282299 166.50000000000003 1294.0000000000002 240491.32296174488 260439.28728070177 364990470.58823532
decision_type=2 2 2 2 2 2 2
left_child=4 2 -2 -3 6 -6 -1
right_child=1 3 -4 -5 5 -7 -8
leaf_value=1359.1399527994793 300.38878867013113 481.36713709904598 -3535.0914130401611 3293.0236977317118 -2370.2511929598722 546.77651811079556 -75.380737642890338
leaf_weight=30 70 130 20 22 44 33 529
leaf_count=30 70 130 20 22 44 33 529
internal_value=0 1763.42 -2759.7 4441.59 -670.988 -5600.48 8.03031
internal_weight=0 242 90 152 636 77 559
internal_count=878 242 90 152 636 77 559
shrinkage=0.2


Tree=47
num_leaves=5
num_cat=0
split_feature=116 124 15 1
split_gain=1.09869e+09 1.36436e+09 3.56448e+09 1.94025e+09
threshold=239671.50000000003 188267.5770064503 6002530887.364584 377.00000000000006
decision_type=2 2 2 2
left_child=1 3 -3 -1
right_child=-2 2 -4 -5
leaf_value=198.4624994003695 1364.0815705672555 -77.174327845355265 -2241.4242563348066 -1074.0602056650016
leaf_weight=612 23 153 38 52
leaf_count=612 23 153 38 52
internal_value=0 -183.473 -2538.79 494.036
internal_weight=0 855 191 664
internal_count=878 855 191 664
shrinkage=0.2


Tree=48
num_leaves=5
num_cat=0
split_feature=0 94 1 38
split_gain=9.72405e+08 4.5136e+09 3.93632e+09 2.13295e+09
threshold=16648.500000000004 269446.55988803314 227.00000000000003 240491.32296174488
decision_type=2 2 2 2
left_child=1 3 -3 -1
right_child=-2 2 -4 -5
leaf_value=22.453073904888576 -1082.2226177215578 3263.6336238738031 226.75712489077921 -1018.0449923054556
leaf_weight=688 32 31 38 89
leaf_count=688 32 31 38 89
internal_value=0 204.676 7955.75 -483.644
internal_weight=0 846 69 777
internal_count=878 846 69 777
shrinkage=0.2


Tree=49
num_leaves=4
num_cat=0
split_feature=28 15 7
split_gain=1.01707e+09 2.57786e+09 2.26779e+09
threshold=320294.254945055 175570416.66666666 2342.0000000000005
decision_type=2 2 2
left_child=1 -1 -3
right_child=-2 2 -4
leaf_value=-2082.3818827311202 1186.0115615844727 -55.43409888249294 1470.3563364168494
leaf_weight=24 28 785 41
leaf_count=24 28 785 41
internal_value=0 -195.343 101.506
internal_weight=0 850 826
internal_count=878 850 826
shrinkage=0.2


Tree=50
num_leaves=4
num_cat=0
split_feature=106 87 45
split_gain=9.49325e+08 9.36081e+08 2.7586e+09
threshold=123537.44285714287 9980669296.1819115 20205424692.584293
decision_type=2 2 2
left_child=-1 2 -2
right_child=1 -3 -4
leaf_value=-977.77295371607727 72.168285184396538 1396.1150488281251 -2198.055487060547
leaf_weight=38 798 20 22
leaf_count=38 798 20 22
internal_value=0 221.163 56.2992
internal_weight=0 840 820
internal_count=878 840 820
shrinkage=0.2


Tree=51
num_leaves=6
num_cat=0
split_feature=0 12 15 1 8
split_gain=8.79938e+08 1.46314e+09 1.39257e+09 1.11721e+09 7.73656e+08
threshold=5511.5000000000009 206153.40334967323 3854804112.2767859 570.00000000000011 133.50000000000003
decision_type=2 2 2 2 2
left_child=2 3 4 -2 -1
right_child=1 -3 -4 -5 -6
leaf_value=-618.76823223761801 67.316461456824996 1547.1974834735577 -2004.8234816778274 -1267.0103083683896 696.54484501591435
leaf_weight=53 725 26 21 26 27
leaf_count=53 725 26 21 26 27
internal_value=0 360.935 -2776.7 105.607 -874.25
internal_weight=0 777 101 751 80
internal_count=878 777 101 751 80
shrinkage=0.2


Tree=52
num_leaves=8
num_cat=0
split_feature=9 9 5 15 15 29 112
split_gain=8.59914e+08 3.23463e+09 6.25409e+09 5.36023e+09 1.74729e+09 1.82937e+09 1.16074e+09
threshold=51.500000000000007 79.000000000000014 1597.5000000000002 1101729907.1666667 7318655702.2910318 1176060968.3048956 121124.09090909093
decision_type=2 2 2 2 2 2 2
left_child=4 2 -2 -3 6 -6 -1
right_child=1 3 -4 -5 5 -7 -8
leaf_value=-1335.3674071655275 269.15331756337486 -3218.1928083147322 3868.7618741548977 168.72095641641056 250.39493942260742 -1783.7769135793051 62.102251000551838
leaf_weight=25 75 21 26 170 28 48 485
leaf_count=25 75 21 26 170 28 48 485
internal_value=0 1401.97 5978.93 -1018.31 -698.591 -5171.73 -32.0058
internal_weight=0 292 101 191 586 76 510
internal_count=878 292 101 191 586 76 510
shrinkage=0.2


Tree=53
num_leaves=4
num_cat=0
split_feature=15 15 7
split_gain=1.02088e+09 1.18282e+09 1.75681e+09
threshold=1.0000000180025095e-35 254160791.16666669 2383.0000000000005
decision_type=2 2 2
left_child=-1 -2 -3
right_child=1 2 -4
leaf_value=1377.6885567801339 -1481.3027116255328 -68.8349858574351 1153.853175048828
leaf_weight=21 22 785 50
leaf_count=21 22 785 50
internal_value=0 -168.795 21.8994
internal_weight=0 857 835
internal_count=878 857 835
shrinkage=0.2


Tree=54
num_leaves=8
num_cat=0
split_feature=122 50 68 15 9 104 91
split_gain=7.99705e+08 1.56344e+09 6.09401e+09 4.05031e+09 1.233e+09 1.09237e+09 6.90089e+08
threshold=184234.28263497181 156018.74054054057 210194.70977011498 254160791.16666669 98.500000000000014 245134.88634773882 4919057575.8014288
decision_type=2 2 2 2 2 2 2
left_child=4 2 -2 -3 5 -1 -6
right_child=1 3 -4 -5 6 -7 -8
leaf_value=235.57702910336582 -73.84401557445527 -2989.6366481434216 3560.8938379196898 -199.66749701944659 1833.7409106118339 -1090.7475298200336 317.06754237583709
leaf_weight=220 152 22 21 386 28 28 21
leaf_count=220 152 22 21 386 28 28 21
internal_value=0 -682.351 1836.83 -1750.54 1334.83 429.154 5918.69
internal_weight=0 581 173 408 297 248 49
internal_count=878 581 173 408 297 248 49
shrinkage=0.2


Tree=55
num_leaves=5
num_cat=0
split_feature=15 5 4 126
split_gain=9.26866e+08 1.01245e+09 3.15098e+09 2.85917e+09
threshold=1.0000000180025095e-35 1793.5000000000002 793.00000000000011 225855.11906733914
decision_type=2 2 2 2
left_child=-1 3 -3 -2
right_child=1 2 -4 -5
leaf_value=1312.7194382440478 -101.61542689797037 774.36765674409423 -2650.6740184437149 1194.397300295512
leaf_weight=21 739 21 22 75
leaf_count=21 739 21 22 75
internal_value=0 -160.835 -4889.9 88.9803
internal_weight=0 857 43 814
internal_count=878 857 43 814
shrinkage=0.2


Tree=56
num_leaves=5
num_cat=0
split_feature=0 94 5 38
split_gain=8.00824e+08 2.26299e+09 2.61758e+09 1.73318e+09
threshold=16648.500000000004 269446.55988803314 1719.5000000000002 240491.32296174488
decision_type=2 2 2 2
left_child=1 3 -3 -1
right_child=-2 2 -4 -5
leaf_value=47.106237737054748 -982.11309432983398 147.14741588774183 2671.1959228515625 -890.83089810489275
leaf_weight=688 32 42 27 89
leaf_count=688 32 42 27 89
internal_value=0 185.742 5674.09 -301.64
internal_weight=0 846 69 777
internal_count=878 846 69 777
shrinkage=0.2


Tree=57
num_leaves=5
num_cat=0
split_feature=92 25 90 5
split_gain=7.66518e+08 8.2857e+08 3.96361e+09 2.29813e+09
threshold=163207.94398692812 6840189675.7364187 204596.660697602 1793.5000000000002
decision_type=2 2 2 2
left_child=-1 3 -3 -2
right_child=1 2 -4 -5
leaf_value=-1029.6136282784598 16.173890673023788 -22.751667936083297 2473.4158727830459 -1720.254058456421
leaf_weight=28 645 142 31 32
leaf_count=28 645 142 31 32
internal_value=0 169.583 2122.69 -329.512
internal_weight=0 850 173 677
internal_count=878 850 173 677
shrinkage=0.2


Tree=58
num_leaves=7
num_cat=0
split_feature=45 7 123 125 14 53
split_gain=7.27334e+08 8.61848e+08 9.71859e+08 6.87782e+08 6.43023e+08 1.9395e+08
threshold=412657080.85317463 935.50000000000011 3797598012.5591407 6643874033.8510008 158624.68750000003 3673048129.7673554
decision_type=2 2 2 2 2 2
left_child=3 4 -3 5 -2 -1
right_child=1 2 -4 -5 -6 -7
leaf_value=701.68930177234472 -303.18429762522379 -1191.0768331674431 53.912389945714871 -122.34981404622397 -1589.3231917671537 1561.2579363141742
leaf_weight=21 48 26 709 30 23 21
leaf_count=21 48 26 709 30 23 21
internal_value=0 -272.031 49.3598 3045.24 -3599.1 5657.37
internal_weight=0 806 735 72 71 42
internal_count=878 806 735 72 71 42
shrinkage=0.2


Tree=59
num_leaves=6
num_cat=0
split_feature=31 15 28 9 15
split_gain=6.79258e+08 1.16967e+09 9.18156e+08 8.93654e+08 1.64968e+08
threshold=3472459576.1973186 153286120.66666672 137157.27272727274 128.50000000000003 2536631981.2865334
decision_type=2 2 2 2 2
left_child=2 -2 -1 -3 -4
right_child=1 3 4 -5 -6
leaf_value=-1410.0464434223791 1490.4736059015449 -56.973471423979383 446.24452819824222 673.32255500587257 -366.08021255493168
leaf_weight=31 22 711 20 74 20
leaf_count=31 22 711 20 74 20
internal_value=0 260.893 -2965.36 59.3486 200.411
internal_weight=0 807 71 785 40
internal_count=878 807 71 785 40
shrinkage=0.2


Tree=60
num_leaves=8
num_cat=0
split_feature=40 40 7 15 53 102 4
split_gain=7.42555e+08 1.38987e+09 1.92617e+09 1.37029e+09 1.07172e+09 2.31537e+09 1.26572e+09
threshold=178935.62834224603 152631.70065789475 1898.0000000000002 4826809152.7777786 5824551543.050312 226359.43674518916 436.00000000000006
decision_type=2 2 2 2 2 2 2
left_child=1 3 -3 -1 5 -2 -6
right_child=4 2 -4 -5 6 -7 -8
leaf_value=143.62083616970347 -220.32047353507647 381.20548471626665 2393.3082083962181 -1151.7204493931363 582.26331723531086 -2115.8170181766632 -223.94143137888864
leaf_weight=147 153 141 22 42 120 31 222
leaf_count=147 153 141 22 42 120 31 222
internal_value=0 1124.19 3263.89 -721.164 -752.308 -2698.35 294.687
internal_weight=0 352 163 189 526 184 342
internal_count=878 352 163 189 526 184 342
shrinkage=0.2


Tree=61
num_leaves=6
num_cat=0
split_feature=122 0 125 14 2
split_gain=6.48187e+08 1.95284e+09 1.2836e+09 1.13057e+09 3.99402e+09
threshold=195343.21546732841 12397.000000000002 6643874033.8510008 293017.87500000006 1322.0000000000002
decision_type=2 2 2 2 2
left_child=3 2 -2 4 -1
right_child=1 -3 -4 -5 -6
leaf_value=90.616325575698909 1059.2582765932436 -2253.3669522094729 -754.38300253378384 1304.1474443708148 -2585.4140625
leaf_weight=743 27 20 37 28 23
leaf_count=743 27 20 37 28 23
internal_value=0 -2641.64 53.7346 279.468 51.3277
internal_weight=0 84 64 794 766
internal_count=878 84 64 794 766
shrinkage=0.2


Tree=62
num_leaves=7
num_cat=0
split_feature=29 29 42 50 15 1
split_gain=5.73689e+08 1.677e+09 1.1305e+09 4.4881e+09 2.1198e+09 9.48622e+08
threshold=1176060968.3048956 1064655676.8588862 213320.00000000003 156018.74054054057 6636622916.697917 227.00000000000003
decision_type=2 2 2 2 2 2
left_child=1 5 4 -4 -2 -1
right_child=2 -3 3 -5 -6 -7
leaf_value=-103.27579339952325 -175.50366978799144 1604.1231882095337 2961.3260672433039 -52.48633437610809 -1743.5742461413874 1069.9483613967896
leaf_weight=199 217 32 21 336 41 32
leaf_count=199 217 32 21 336 41 32
internal_value=0 1236.09 -528.605 623.984 -2123.47 296.244
internal_weight=0 263 615 357 258 231
internal_count=878 263 615 357 258 231
shrinkage=0.2


Tree=63
num_leaves=7
num_cat=0
split_feature=14 2 66 0 91 2
split_gain=5.96661e+08 3.96026e+09 2.61923e+09 5.19989e+09 2.31274e+09 1.46613e+09
threshold=185535.66433566436 989.00000000000011 175050.00873334365 14788.500000000002 4919057575.8014288 831.50000000000011
decision_type=2 2 2 2 2 2
left_child=1 5 4 -4 -2 -1
right_child=2 -3 3 -5 -6 -7
leaf_value=-82.666626910255076 217.88901783243816 -2337.7633383474044 372.27392531840007 3805.4099806976319 -1087.8976499310663 1592.241010908647
leaf_weight=420 150 31 150 20 85 22
leaf_count=420 150 31 150 20 85 22
internal_value=0 -762.805 890.881 3880.86 -1272.08 3.49908
internal_weight=0 473 405 170 235 442
internal_count=878 473 405 170 235 442
shrinkage=0.2


Tree=64
num_leaves=5
num_cat=0
split_feature=0 15 2 43
split_gain=6.52338e+08 1.72926e+09 1.6241e+09 1.4694e+09
threshold=16046.000000000002 2574538760.392858 1392.5000000000002 7762868936.7484856
decision_type=2 2 2 2
left_child=2 -2 3 -1
right_child=1 -3 -4 -5
leaf_value=53.676710982784158 -2104.0757144165041 525.9522583007813 1733.3587790749291 -1174.8993727521199
leaf_weight=775 20 20 22 41
leaf_count=775 20 20 22 41
internal_value=0 -3945.31 188.32 -40.2661
internal_weight=0 40 838 816
internal_count=878 40 838 816
shrinkage=0.2


Tree=65
num_leaves=8
num_cat=0
split_feature=38 9 43 2 1 68 9
split_gain=6.5383e+08 2.29978e+09 3.7404e+09 3.27221e+09 1.39379e+09 1.41653e+09 8.80549e+08
threshold=240491.32296174488 79.000000000000014 6260916666.6666679 813.00000000000011 257.00000000000006 149818.789640592 167.00000000000003
decision_type=2 2 2 2 2 2 2
left_child=4 2 -2 -3 6 -6 -1
right_child=1 3 -4 -5 5 -7 -8
leaf_value=-55.686663281386068 -441.99313787930254 -169.0206298828125 2552.8494414589622 -3072.1099384765625 -411.7292501903716 1570.6746767790421 1132.0745610163763
leaf_weight=628 69 41 22 25 21 46 26
leaf_count=628 69 41 22 25 21 46 26
internal_value=0 -1849.28 1410.17 -6343.38 402.687 4746.62 -42.334
internal_weight=0 157 91 66 721 67 654
internal_count=878 157 91 66 721 67 654
shrinkage=0.2


Tree=66
num_leaves=4
num_cat=0
split_feature=24 0 94
split_gain=5.1815e+08 2.51048e+09 1.41004e+09
threshold=233673.76470588238 16648.500000000004 269446.55988803314
decision_type=2 2 2
left_child=1 2 -1
right_child=-2 -3 -4
leaf_value=-47.772329159900451 765.49477197983697 -1965.5969710129957 909.78687347867606
leaf_weight=751 34 26 67
leaf_count=751 34 26 67
internal_value=0 -154.187 153.293
internal_weight=0 844 818
internal_count=878 844 818
shrinkage=0.2


Tree=67
num_leaves=7
num_cat=0
split_feature=38 15 123 0 90 40
split_gain=5.97732e+08 1.9514e+09 1.76655e+09 9.44235e+08 1.22922e+09 8.16355e+08
threshold=240491.32296174488 1604681668.3888385 6403190518.1655722 13690.500000000002 204596.660697602 205305.55466950205
decision_type=2 2 2 2 2 2
left_child=3 -2 -3 4 -1 -5
right_child=1 2 -4 5 -6 -7
leaf_value=113.41349827502225 -2199.0672912597656 -807.66706688263844 628.7272827148438 227.76388928643587 -726.49561382245417 1865.1299955822171
leaf_weight=592 20 68 69 29 79 21
leaf_count=592 20 68 69 29 79 21
internal_value=0 -1768.17 -421.138 385.024 72.6352 4577.29
internal_weight=0 157 137 721 671 50
internal_count=878 157 137 721 671 50
shrinkage=0.2


Tree=68
num_leaves=7
num_cat=0
split_feature=45 51 40 0 125 2
split_gain=5.25901e+08 5.67293e+08 1.19362e+09 1.07473e+09 3.70728e+08 1.66576e+08
threshold=412657080.85317463 2549324314.4939938 205305.55466950205 16648.500000000004 6643874033.8510008 387.50000000000006
decision_type=2 2 2 2 2 2
left_child=4 2 -2 -3 5 -1
right_child=1 3 -4 -5 -6 -7
leaf_value=1299.7438383556548 48.764065013212317 43.037734716696129 -1898.4133807373048 -1290.643317138672 -19.089058430989585 503.14232148670021
leaf_weight=21 34 727 20 25 30 21
leaf_count=21 34 727 20 25 30 21
internal_value=0 -231.315 -3362.06 -6.50033 2589.44 4507.22
internal_weight=0 806 54 752 72 42
internal_count=878 806 54 752 72 42
shrinkage=0.2


Tree=69
num_leaves=8
num_cat=0
split_feature=8 124 43 9 124 29 7
split_gain=5.15795e+08 1.71239e+09 2.81629e+09 1.87331e+09 1.38178e+09 2.17379e+09 9.83562e+08
threshold=158.50000000000003 185524.22232066156 5891910139.8546114 82.500000000000014 186518.93830457778 4322028772.6056957 1070.5000000000002
decision_type=2 2 2 2 2 2 2
left_child=4 3 -3 -2 6 -6 -1
right_child=1 2 -4 -5 5 -7 -8
leaf_value=-432.13231141931874 68.834402207196774 291.80466704300471 2725.9727361505684 -2130.7659193856375 -239.25366994966336 -2070.0442128148575 345.94105641375421
leaf_weight=85 59 140 22 21 246 29 276
leaf_count=85 59 140 22 21 246 29 276
internal_value=0 1242.55 3111.85 -2542.8 -472.792 -2161.59 813.691
internal_weight=0 242 162 80 636 275 361
internal_count=878 242 162 80 636 275 361
shrinkage=0.2


Tree=70
num_leaves=4
num_cat=0
split_feature=15 5 1
split_gain=5.17533e+08 6.23367e+08 1.00957e+09
threshold=1.0000000180025095e-35 1931.0000000000002 451.00000000000006
decision_type=2 2 2
left_child=-1 2 -2
right_child=1 -3 -4
leaf_value=980.91713601975209 -46.270520799723101 -1100.2662429082961 983.44170532226565
leaf_weight=21 796 21 40
leaf_count=21 796 21 40
internal_value=0 -120.182 14.99
internal_weight=0 857 836
internal_count=878 857 836
shrinkage=0.2


Tree=71
num_leaves=5
num_cat=0
split_feature=1 5 42 4
split_gain=5.84581e+08 3.00929e+09 2.53538e+09 1.35859e+09
threshold=425.00000000000006 1844.5000000000002 253986.90909090912 1555.0000000000002
decision_type=2 2 2 2
left_child=1 3 -2 -1
right_child=2 -3 -4 -5
leaf_value=-64.549080043861736 458.95669560962256 2250.628399149577 -2194.8556578636171 1605.0000634765627
leaf_weight=774 36 24 24 20
leaf_count=774 36 24 24 20
internal_value=0 220.991 -3012.84 -112.475
internal_weight=0 818 60 794
internal_count=878 818 60 794
shrinkage=0.2


Tree=72
num_leaves=8
num_cat=0
split_feature=2 43 4 2 0 56 0
split_gain=5.3096e+08 1.2151e+09 1.20093e+09 1.19017e+09 1.70609e+09 1.56603e+09 3.59312e+08
threshold=24.500000000000004 569157812.50000012 824.50000000000011 514.00000000000011 11603.000000000002 299736.41938490223 8389.0000000000018
decision_type=2 2 2 2 2 2 2
left_child=1 6 -3 4 -2 -5 -1
right_child=3 2 -4 5 -6 -7 -8
leaf_value=132.2093744187128 218.3411649054882 -1055.3534225463868 -100.70350487287655 -14.218240657966295 1669.9357122959236 -1794.7975399925597 1265.0188792546592
leaf_weight=21 191 76 172 334 39 21 24
leaf_count=21 191 76 172 334 39 21 24
internal_value=0 -1098.82 -1966.29 550.351 2322.41 -597.741 3681.87
internal_weight=0 293 248 585 230 355 45
internal_count=878 293 248 585 230 355 45
shrinkage=0.2


Tree=73
num_leaves=4
num_cat=0
split_feature=87 7 7
split_gain=4.78978e+08 1.88342e+09 1.96236e+09
threshold=9980669296.1819115 2477.5000000000005 2308.0000000000005
decision_type=2 2 2
left_child=1 2 -1
right_child=-2 -3 -4
leaf_value=-14.591488126635552 921.43753773082392 -1482.3715446920958 1900.0998377019712
leaf_weight=800 22 34 22
leaf_count=800 22 34 22
internal_value=0 -118.409 183.266
internal_weight=0 856 822
internal_count=878 856 822
shrinkage=0.2


Tree=74
num_leaves=6
num_cat=0
split_feature=96 5 5 1 50
split_gain=4.71561e+08 7.28799e+08 5.22269e+08 1.19743e+09 9.89714e+08
threshold=165937.030075188 951.50000000000011 777.50000000000011 43.000000000000007 156018.74054054057
decision_type=2 2 2 2 2
left_child=1 -1 3 -2 -4
right_child=2 -3 4 -5 -6
leaf_value=260.00287272135415 -650.64671577247418 -1324.1112396240235 528.87488604377302 553.75899404972165 -29.317664979181991
leaf_weight=21 111 26 170 47 503
leaf_count=21 111 26 170 47 503
internal_value=0 -3081.58 174.289 -1461.87 558.41
internal_weight=0 47 831 158 673
internal_count=878 47 831 158 673
shrinkage=0.2


Tree=75
num_leaves=6
num_cat=0
split_feature=53 28 38 15 44
split_gain=4.59753e+08 2.49589e+09 9.31499e+08 1.59446e+09 6.58883e+08
threshold=6484551701.0173445 198353.20714285717 240491.32296174488 5198897527.8181829 238651.04166666672
decision_type=2 2 2 2 2
left_child=2 -2 4 -4 -1
right_child=1 -3 3 -5 -6
leaf_value=18.948326620388599 -948.04272436523445 1719.0307291865349 -1217.9820598255506 194.47071800231936 1156.5924121675039
leaf_weight=672 25 32 66 62 21
leaf_count=672 25 32 66 62 21
internal_value=0 2746.31 -190.669 -2669.13 267.112
internal_weight=0 57 821 128 693
internal_count=878 57 821 128 693
shrinkage=0.2


Tree=76
num_leaves=5
num_cat=0
split_feature=92 44 43 113
split_gain=4.3324e+08 5.7192e+08 1.37687e+09 7.60374e+08
threshold=163207.94398692812 126387.50000000001 2947578154.7619057 1.0000000180025095e-35
decision_type=2 2 2 2
left_child=-1 2 -2 -3
right_child=1 3 -4 -5
leaf_value=-774.06481279645652 723.76591826794197 -1148.6881586710613 -1091.0876137924195 -3.9205135480924085
leaf_weight=28 102 24 20 704
leaf_count=28 102 24 20 704
internal_value=0 127.493 2131.24 -208.301
internal_weight=0 850 122 728
internal_count=878 850 122 728
shrinkage=0.2


Tree=77
num_leaves=4
num_cat=0
split_feature=43 7 7
split_gain=4.0299e+08 1.53793e+09 1.42466e+09
threshold=17154739679.487181 2477.5000000000005 2334.5000000000005
decision_type=2 2 2
left_child=1 2 -1
right_child=-2 -3 -4
leaf_value=-7.2713266952552988 826.13120860224194 -1265.9787675757159 1661.6263506208147
leaf_weight=796 23 38 21
leaf_count=796 23 38 21
internal_value=0 -111.117 178.128
internal_weight=0 855 817
internal_count=878 855 817
shrinkage=0.2


Tree=78
num_leaves=4
num_cat=0
split_feature=6 45 2
split_gain=4.32559e+08 9.41443e+08 7.58228e+08
threshold=1288.5000000000002 20205424692.584293 1322.0000000000002
decision_type=2 2 2
left_child=1 2 -1
right_child=-2 -3 -4
leaf_value=52.106865846441032 919.46266357421882 -1344.0568661644347 -886.15724155637952
leaf_weight=801 20 21 36
leaf_count=801 20 21 36
internal_value=0 -107.163 58.7571
internal_weight=0 858 837
internal_count=878 858 837
shrinkage=0.2


Tree=79
num_leaves=5
num_cat=0
split_feature=25 8 53 5
split_gain=4.06675e+08 5.11408e+08 1.49656e+09 9.93493e+08
threshold=5647729366.3001986 158.50000000000003 3008486555.4040422 1757.5000000000002
decision_type=2 2 2 2
left_child=-1 3 -3 -2
right_child=1 2 -4 -5
leaf_value=-869.53528298877541 -27.382652263736254 -792.58744428767716 513.38592909568274 -1460.1734448242187
leaf_weight=21 603 43 191 20
leaf_count=21 603 43 191 20
internal_value=0 106.536 1367 -366.896
internal_weight=0 857 234 623
internal_count=878 857 234 623
shrinkage=0.2


Tree=80
num_leaves=7
num_cat=0
split_feature=5 123 1 29 14 14
split_gain=5.02379e+08 3.24858e+09 1.8238e+09 1.2625e+09 1.92053e+09 8.48793e+08
threshold=1683.0000000000002 8016013940.1042585 305.50000000000006 4322028772.6056957 208727.33333333334 214852.81250000003
decision_type=2 2 2 2 2 2
left_child=3 2 -2 5 -5 -1
right_child=1 -3 -4 4 -6 -7
leaf_value=-26.705164247467408 713.9251729329427 2247.0155381944446 -1778.3589392548024 114.5030070754717 -1641.6128724443151 689.32472261995883
leaf_weight=630 24 27 23 53 47 74
leaf_count=630 24 27 23 53 47 74
internal_value=0 2493.34 -2528.52 -229.486 -3554.36 242.797
internal_weight=0 74 47 804 100 704
internal_count=878 74 47 804 100 704
shrinkage=0.2


Tree=81
num_leaves=5
num_cat=0
split_feature=99 9 5 94
split_gain=4.32158e+08 1.77318e+09 1.25036e+09 1.71235e+09
threshold=12164819835.965208 53.500000000000007 1906.0000000000002 269446.55988803314
decision_type=2 2 2 2
left_child=2 -2 3 -1
right_child=1 -3 -4 -5
leaf_value=-70.42082247345725 -334.1579234095982 1990.4851481119795 -1490.4805703868037 1138.4317818603515
leaf_weight=749 35 21 23 50
leaf_count=749 35 21 23 50
internal_value=0 2687.92 -183.118 26.1351
internal_weight=0 56 822 799
internal_count=878 56 822 799
shrinkage=0.2


Tree=82
num_leaves=7
num_cat=0
split_feature=124 15 5 28 7 4
split_gain=4.09979e+08 1.07154e+09 1.32466e+09 9.91394e+08 2.00947e+09 6.57922e+08
threshold=188267.5770064503 6002530887.364584 1390.0000000000002 320294.254945055 2477.5000000000005 125.50000000000001
decision_type=2 2 2 2 2 2
left_child=3 5 -3 4 -1 -2
right_child=1 2 -4 -5 -6 -7
leaf_value=101.31444890167666 -873.31449616530847 -2273.5932216099332 0.71208068847656258 1394.0181798761541 -1660.4967203776043 183.2563581118508
leaf_weight=633 29 21 20 22 27 126
leaf_count=633 29 21 20 22 27 126
internal_value=0 -1274.67 -5820.88 366.327 146.202 -72.1232
internal_weight=0 196 41 682 660 155
internal_count=878 196 41 682 660 155
shrinkage=0.2


Tree=83
num_leaves=5
num_cat=0
split_feature=7 14 14 8
split_gain=4.40253e+08 3.29547e+09 8.55908e+08 7.7317e+08
threshold=2383.0000000000005 224885.75000000003 288045.83333333343 196.50000000000003
decision_type=2 2 2 2
left_child=2 -2 3 -1
right_child=1 -3 -4 -5
leaf_value=-81.928568744942424 -1082.8660427517361 1939.4484942036293 -1124.3916992187501 473.02800023353706
leaf_weight=674 27 31 28 118
leaf_count=674 27 31 28 118
internal_value=0 2662.54 -188.326 3.77177
internal_weight=0 58 820 792
internal_count=878 58 820 792
shrinkage=0.2


Tree=84
num_leaves=5
num_cat=0
split_feature=40 40 4 53
split_gain=3.94815e+08 5.77128e+08 1.15539e+09 7.16257e+08
threshold=138011.95065789475 178935.62834224603 926.50000000000011 6484551701.0173445
decision_type=2 2 2 2
left_child=-1 2 -2 -3
right_child=1 3 -4 -5
leaf_value=-639.40567656852102 132.22424166276284 -169.71753203271587 1575.9903330485026 682.10598233245139
leaf_weight=37 291 483 24 43
leaf_count=37 291 483 24 43
internal_value=0 140.654 1211.13 -500.409
internal_weight=0 841 315 526
internal_count=878 841 315 526
shrinkage=0.2


Tree=85
num_leaves=6
num_cat=0
split_feature=0 5 12 9 1
split_gain=3.24454e+08 1.26908e+09 7.83297e+08 5.43204e+08 5.20197e+08
threshold=4044.0000000000005 907.50000000000011 206153.40334967323 79.000000000000014 71.000000000000014
decision_type=2 2 2 2 2
left_child=1 4 3 -2 -1
right_child=2 -3 -4 -5 -6
leaf_value=-577.65570872913702 83.216839403722801 -1758.1338772583008 1074.6082676478795 -328.08570756323547 743.75047654371997
leaf_weight=22 620 20 28 162 26
leaf_count=22 620 20 28 162 26
internal_value=0 -2098.06 176.133 -9.9453 690.53
internal_weight=0 68 810 782 48
internal_count=878 68 810 782 48
shrinkage=0.2


Tree=86
num_leaves=6
num_cat=0
split_feature=14 2 2 43 7
split_gain=3.46629e+08 2.00704e+09 1.92339e+09 1.34865e+09 9.54049e+08
threshold=185535.66433566436 1294.0000000000002 1027.0000000000002 9386666666.6666698 1865.0000000000002
decision_type=2 2 2 2 2
left_child=2 3 4 -2 -1
right_child=1 -3 -4 -5 -6
leaf_value=-108.07676093514218 105.70474096325862 1606.5205803366271 -1788.5267916165867 -1388.0185978816107 939.57203923275597
leaf_weight=409 345 34 26 26 38
leaf_count=409 345 34 26 26 38
internal_value=0 679.029 -581.41 5.1166 -95.0745
internal_weight=0 405 473 371 447
internal_count=878 405 473 371 447
shrinkage=0.2


Tree=87
num_leaves=7
num_cat=0
split_feature=122 7 82 7 50 7
split_gain=3.53408e+08 1.27875e+09 9.51726e+08 6.84851e+08 2.04294e+09 6.96606e+08
threshold=195343.21546732841 1966.5000000000002 189734.14268372886 1865.0000000000002 156018.74054054057 1777.5000000000002
decision_type=2 2 2 2 2 2
left_child=3 2 -2 5 -5 -1
right_child=1 -3 -4 4 -6 -7
leaf_value=7.1511196585997041 -531.54534271984573 -1786.0268786621095 1075.8402205757473 2004.4717022931136 72.880310347984576 -854.36535713195815
leaf_weight=611 41 20 23 27 116 40
leaf_count=611 41 20 23 27 116 40
internal_value=0 -1950.57 230.544 206.358 2187.93 -228.919
internal_weight=0 84 64 794 143 651
internal_count=878 84 64 794 143 651
shrinkage=0.2


Tree=88
num_leaves=5
num_cat=0
split_feature=92 42 42 14
split_gain=4.36786e+08 4.40044e+08 9.0285e+08 8.08595e+08
threshold=163207.94398692812 139825.00000000003 134811.42857142861 180363.15238095241
decision_type=2 2 2 2
left_child=-1 2 -2 -3
right_child=1 3 -4 -5
leaf_value=-777.22602975027905 64.017881348019557 -336.01176267048669 1081.7294463070955 124.57562711943
leaf_weight=28 168 252 44 386
leaf_count=28 168 252 44 386
internal_value=0 128.014 1376.21 -286.746
internal_weight=0 850 212 638
internal_count=878 850 212 638
shrinkage=0.2


Tree=89
num_leaves=4
num_cat=0
split_feature=64 15 14
split_gain=3.50896e+08 3.84536e+08 4.19823e+08
threshold=151140.6613691932 1.0000000180025095e-35 296247.50000000006
decision_type=2 2 2
left_child=-1 -2 -3
right_child=1 2 -4
leaf_value=-770.88753715183429 887.38710617065431 22.757339515264263 -882.94304780505956
leaf_weight=23 20 814 21
leaf_count=23 20 814 21
internal_value=0 103.687 -0.10377
internal_weight=0 855 835
internal_count=878 855 835
shrinkage=0.2


end of trees

feature importances:
GrLivArea=44
LotFrontage_var=31
TotalBsmtSF=29
BsmtFinSF1=27
LotArea=22
LotFrontage_mean=20
OverallQual_mean=20
OverallCond_mean=17
MasVnrArea=14
YearBuilt_var=14
Neighborhood_var=11
BsmtUnfSF=10
OpenPorchSF=10
Neighborhood_mean=9
YearBuilt_mean=9
YearRemodAdd_mean=9
2ndFlrSF=7
WoodDeckSF=7
YearRemodAdd_var=7
Exterior2nd_var=6
KitchenQual_mean=6
MoSold_mean=6
FullBath_var=5
Fireplaces_var=5
GarageCars_mean=5
MoSold_var=5
YrSold_mean=5
LandContour_mean=4
Exterior1st_mean=4
BsmtCond_mean=4
BsmtExposure_mean=4
BedroomAbvGr_mean=4
KitchenAbvGr_mean=4
SaleType_mean=4
SaleCondition_mean=4
MSSubClass_mean=3
MSZoning_mean=3
BsmtFinType1_mean=3
Functional_mean=3
ScreenPorch_mean=3
YrSold_var=3
BsmtFinSF2=2
MSSubClass_var=2
LotConfig_mean=2
LotConfig_var=2
Condition1_var=2
CentralAir_mean=2
BsmtFullBath_mean=2
BedroomAbvGr_var=2
Fireplaces_mean=2
GarageFinish_mean=2
GarageQual_mean=2
EnclosedPorch_mean=2
Exterior1st_var=1
ExterQual_mean=1
BsmtQual_mean=1
HeatingQC_mean=1
FullBath_mean=1
GarageType_mean=1
EnclosedPorch_var=1

parameters:
[boosting: gbdt]
[objective: regression]
[metric: l2]
[tree_learner: serial]
[device_type: cpu]
[data: ]
[valid: ]
[num_iterations: 100]
[learning_rate: 0.2]
[num_leaves: 8]
[num_threads: -1]
[max_depth: 3]
[min_data_in_leaf: 20]
[min_sum_hessian_in_leaf: 0.001]
[bagging_fraction: 1]
[pos_bagging_fraction: 1]
[neg_bagging_fraction: 1]
[bagging_freq: 0]
[bagging_seed: 400]
[feature_fraction: 1]
[feature_fraction_bynode: 1]
[feature_fraction_seed: 30056]
[early_stopping_round: 0]
[first_metric_only: 0]
[max_delta_step: 0]
[lambda_l1: 0]
[lambda_l2: 0]
[min_gain_to_split: 0]
[drop_rate: 0.1]
[max_drop: 50]
[skip_drop: 0.5]
[xgboost_dart_mode: 0]
[uniform_drop: 0]
[drop_seed: 17869]
[top_rate: 0.2]
[other_rate: 0.1]
[min_data_per_group: 100]
[max_cat_threshold: 32]
[cat_l2: 10]
[cat_smooth: 10]
[max_cat_to_onehot: 4]
[top_k: 20]
[monotone_constraints: ]
[feature_contri: ]
[forcedsplits_filename: ]
[forcedbins_filename: ]
[refit_decay_rate: 0.9]
[cegb_tradeoff: 1]
[cegb_penalty_split: 0]
[cegb_penalty_feature_lazy: ]
[cegb_penalty_feature_coupled: ]
[verbosity: -1]
[max_bin: 255]
[max_bin_by_feature: ]
[min_data_in_bin: 3]
[bin_construct_sample_cnt: 200000]
[histogram_pool_size: -1]
[data_random_seed: 175]
[output_model: LightGBM_model.txt]
[snapshot_freq: -1]
[input_model: ]
[output_result: LightGBM_predict_result.txt]
[initscore_filename: ]
[valid_data_initscores: ]
[pre_partition: 0]
[enable_bundle: 1]
[max_conflict_rate: 0]
[is_enable_sparse: 1]
[sparse_threshold: 0.8]
[use_missing: 1]
[zero_as_missing: 0]
[two_round: 0]
[save_binary: 0]
[header: 0]
[label_column: ]
[weight_column: ]
[group_column: ]
[ignore_column: ]
[categorical_feature: ]
[predict_raw_score: 0]
[predict_leaf_index: 0]
[predict_contrib: 0]
[num_iteration_predict: -1]
[pred_early_stop: 0]
[pred_early_stop_freq: 10]
[pred_early_stop_margin: 10]
[convert_model_language: ]
[convert_model: gbdt_prediction.cpp]
[num_class: 1]
[is_unbalance: 0]
[scale_pos_weight: 1]
[sigmoid: 1]
[boost_from_average: 1]
[reg_sqrt: 0]
[alpha: 0.9]
[fair_c: 1]
[poisson_max_delta_step: 0.7]
[tweedie_variance_power: 1.5]
[max_position: 20]
[lambdamart_norm: 1]
[label_gain: ]
[metric_freq: 1]
[is_provide_training_metric: 0]
[eval_at: ]
[multi_error_top_k: 1]
[num_machines: 1]
[local_listen_port: 12400]
[time_out: 120]
[machine_list_filename: ]
[machines: ]
[gpu_platform_id: -1]
[gpu_device_id: -1]
[gpu_use_dp: 0]

end of parameters

pandas_categorical:[]
